<?xml version="1.0"?>
<opencv_storage>
<cascade>
  <stageType>BOOST</stageType>
  <featureType>HAAR</featureType>
  <height>30</height>
  <width>24</width>
  <stageParams>
    <boostType>GAB</boostType>
    <minHitRate>9.9500000476837158e-01</minHitRate>
    <maxFalseAlarm>5.0000000000000000e-01</maxFalseAlarm>
    <weightTrimRate>9.4999998807907104e-01</weightTrimRate>
    <maxDepth>1</maxDepth>
    <maxWeakCount>100</maxWeakCount></stageParams>
  <featureParams>
    <maxCatCount>0</maxCatCount>
    <featSize>1</featSize>
    <mode>BASIC</mode></featureParams>
  <stageNum>5</stageNum>
  <stages>
    <!-- stage 0 -->
    <_>
      <maxWeakCount>2</maxWeakCount>
      <stageThreshold>-2.2406378388404846e-01</stageThreshold>
      <weakClassifiers>
        <_>
          <internalNodes>
            0 -1 1 -7.4095707386732101e-03</internalNodes>
          <leafValues>
            7.6623374223709106e-01 -9.9798387289047241e-01</leafValues></_>
        <_>
          <internalNodes>
            0 -1 8 2.5910702534019947e-03</internalNodes>
          <leafValues>
            -9.9029755592346191e-01 8.1453013420104980e-01</leafValues></_></weakClassifiers></_>
    <!-- stage 1 -->
    <_>
      <maxWeakCount>1</maxWeakCount>
      <stageThreshold>4.5263159275054932e-01</stageThreshold>
      <weakClassifiers>
        <_>
          <internalNodes>
            0 -1 2 -7.2182580828666687e-02</internalNodes>
          <leafValues>
            4.5263159275054932e-01 -1.</leafValues></_></weakClassifiers></_>
    <!-- stage 2 -->
    <_>
      <maxWeakCount>2</maxWeakCount>
      <stageThreshold>-2.6270794868469238e-01</stageThreshold>
      <weakClassifiers>
        <_>
          <internalNodes>
            0 -1 4 -1.9834624230861664e-01</internalNodes>
          <leafValues>
            6.8965518474578857e-01 -9.6043521165847778e-01</leafValues></_>
        <_>
          <internalNodes>
            0 -1 5 7.3593348264694214e-02</internalNodes>
          <leafValues>
            -9.5236313343048096e-01 8.2371324300765991e-01</leafValues></_></weakClassifiers></_>
    <!-- stage 3 -->
    <_>
      <maxWeakCount>2</maxWeakCount>
      <stageThreshold>-8.9706115424633026e-02</stageThreshold>
      <weakClassifiers>
        <_>
          <internalNodes>
            0 -1 7 -7.0467065088450909e-03</internalNodes>
          <leafValues>
            8.4615385532379150e-01 -9.5870208740234375e-01</leafValues></_>
        <_>
          <internalNodes>
            0 -1 6 -8.6661249399185181e-02</internalNodes>
          <leafValues>
            9.1765338182449341e-01 -9.3585997819900513e-01</leafValues></_></weakClassifiers></_>
    <!-- stage 4 -->
    <_>
      <maxWeakCount>2</maxWeakCount>
      <stageThreshold>1.1102230246251565e-16</stageThreshold>
      <weakClassifiers>
        <_>
          <internalNodes>
            0 -1 3 7.8406639397144318e-02</internalNodes>
          <leafValues>
            -9.6078431606292725e-01 1.</leafValues></_>
        <_>
          <internalNodes>
            0 -1 0 -4.3401247262954712e-01</internalNodes>
          <leafValues>
            1. -1.</leafValues></_></weakClassifiers></_></stages>
  <features>
    <_>
      <rects>
        <_>
          0 0 24 28 -1.</_>
        <_>
          0 0 12 14 2.</_>
        <_>
          12 14 12 14 2.</_></rects>
      <tilted>0</tilted></_>
    <_>
      <rects>
        <_>
          0 14 6 4 -1.</_>
        <_>
          0 14 3 2 2.</_>
        <_>
          3 16 3 2 2.</_></rects>
      <tilted>0</tilted></_>
    <_>
      <rects>
        <_>
          1 1 20 9 -1.</_>
        <_>
          1 4 20 3 3.</_></rects>
      <tilted>0</tilted></_>
    <_>
      <rects>
        <_>
          1 5 4 18 -1.</_>
        <_>
          1 11 4 6 3.</_></rects>
      <tilted>0</tilted></_>
    <_>
      <rects>
        <_>
          1 15 12 15 -1.</_>
        <_>
          1 20 12 5 3.</_></rects>
      <tilted>0</tilted></_>
    <_>
      <rects>
        <_>
          1 22 9 8 -1.</_>
        <_>
          4 22 3 8 3.</_></rects>
      <tilted>0</tilted></_>
    <_>
      <rects>
        <_>
          2 9 16 12 -1.</_>
        <_>
          2 9 8 6 2.</_>
        <_>
          10 15 8 6 2.</_></rects>
      <tilted>0</tilted></_>
    <_>
      <rects>
        <_>
          5 10 1 6 -1.</_>
        <_>
          5 12 1 2 3.</_></rects>
      <tilted>0</tilted></_>
    <_>
      <rects>
        <_>
          16 11 3 2 -1.</_>
        <_>
          16 12 3 1 2.</_></rects>
      <tilted>0</tilted></_></features></cascade>
</opencv_storage>
